float dense_w[5][64] = {{ 0.1539, -0.009 ,  0.0808,  0.1815, -0.4563, -0.1655, -0.0645, -0.1253,
  -0.1617, -0.0817,  0.1608, -0.2741, -0.1548,  0.0517, -0.1701,  0.109 ,
   0.1107, -0.2807,  0.1461, -0.0752, -0.1575, -0.2801,  0.0554, -0.2163,
   0.2137, -0.1129, -0.1829, -0.5917, -0.3041, -0.1416,  0.2777,  0.1159,
  -0.0189,  0.1441, -0.1799, -0.0028, -0.0218,  0.2223, -0.0188,  0.2849,
   0.071 ,  0.101 ,  0.2018, -0.2567, -0.2086,  0.1138, -0.0419,  0.0396,
  -0.0572,  0.176 ,  0.1884,  0.2781, -0.3505,  0.2353, -0.4458,  0.2362,
  -0.5417, -0.0339,  0.2123,  0.1741,  0.1454,  0.1482,  0.0968, -0.0872},
 {-0.2691,  0.0904,  0.0558,  0.0767,  0.026 ,  0.3904, -0.0455,  0.1554,
   0.1552,  0.0093, -0.0354,  0.1072,  0.0825,  0.0563, -0.2755,  0.1243,
  -0.0315, -0.1637,  0.0175,  0.4245,  0.3554,  0.2196, -0.062 ,  0.4813,
  -0.1892,  0.481 ,  0.2915,  0.084 ,  0.2694, -0.0681, -0.1466,  0.3723,
   0.412 ,  0.1151, -0.0876, -0.0631,  0.273 , -0.1735, -0.2053,  0.0165,
   0.411 ,  0.427 , -0.1493,  0.161 , -0.1547, -0.294 , -0.1388,  0.4351,
   0.1505, -0.1215,  0.1007,  0.4207,  0.1347, -0.004 ,  0.0549,  0.3995,
  -0.2083,  0.2308, -0.1152,  0.3866, -0.1854, -0.0818,  0.1037,  0.0131},
 {-0.0525,  0.6001,  0.4816, -0.2522,  0.5533,  0.579 , -0.2714, -0.212 ,
   0.6009,  0.4973, -0.0047, -0.1486,  0.4709,  0.5384,  0.6197, -0.1996,
  -0.2752, -0.2939, -0.2012,  0.6746,  0.4372,  0.6952, -0.1674,  0.499 ,
  -0.1379,  0.6362, -0.1534,  0.4946,  0.5871,  0.6882, -0.2519,  0.5325,
   0.6775, -0.2276, -0.1794,  0.4866, -0.2688, -0.2154, -0.192 , -0.2211,
   0.6982,  0.5266, -0.2319,  0.6755, -0.1158, -0.215 , -0.1733,  0.5896,
  -0.2698, -0.0252, -0.226 ,  0.4744,  0.4845, -0.1925,  0.3292,  0.4726,
   0.502 , -0.2703, -0.1591,  0.7318, -0.2233, -0.1635,  0.7273, -0.2468},
 { 0.0206, -0.0881, -0.0199,  0.148 , -0.2624,  0.1707, -0.2798, -0.2014,
  -0.4121,  0.0079, -0.1898, -0.1929, -0.316 , -0.2797, -0.4593, -0.2707,
   0.0777,  0.0909, -0.2871, -0.0011, -0.2727, -0.0087, -0.2835, -0.2579,
  -0.1628,  0.1826,  0.0871, -0.2012, -0.1425, -0.1207,  0.0521, -0.025 ,
   0.0116,  0.2385,  0.0037, -0.3198, -0.1226, -0.1901,  0.2318, -0.1902,
  -0.317 ,  0.0361, -0.0431,  0.0747,  0.2297,  0.0175, -0.0776, -0.3094,
   0.1059, -0.0633,  0.1008,  0.1048, -0.2945, -0.1787, -0.2914,  0.14  ,
  -0.5365,  0.0114, -0.1083, -0.1005, -0.0197, -0.0674,  0.0289, -0.0325},
 { 0.0172, -0.4473, -0.3843,  0.2288, -0.6104, -0.5015,  0.0511, -0.1847,
  -0.3604, -0.4284, -0.0807,  0.1647, -0.105 , -0.3905, -0.2486, -0.0822,
  -0.011 , -0.0404,  0.1509,  0.0924, -0.217 , -0.316 , -0.082 , -0.4541,
   0.1339, -0.0588, -0.0289, -0.8714, -0.4244, -0.3236, -0.0473, -0.1522,
  -0.2644, -0.0103, -0.2091, -0.0998,  0.1079,  0.2208, -0.1744, -0.0776,
  -0.1606, -0.3016, -0.1423, -0.3906, -0.1111,  0.0829, -0.0673,  0.1091,
   0.0273,  0.0544, -0.2107, -0.3588, -0.1607, -0.2936, -0.3009, -0.3142,
  -0.5237,  0.2781, -0.2035, -0.1941,  0.1269,  0.1463, -0.0059,  0.0298}};
float dense_b[64] = { 0.    ,  0.4108,  0.4369,  0.    ,  0.3237,  0.4705,  0.    ,  0.    ,
  0.4095,  0.4843, -0.021 ,  0.    ,  0.4458,  0.4597,  0.3714,  0.    ,
  0.    ,  0.    ,  0.    ,  0.4596,  0.4798,  0.4552,  0.    ,  0.4483,
  0.    ,  0.4477,  0.    ,  0.3142,  0.4414,  0.4378,  0.    ,  0.4389,
  0.4688,  0.    ,  0.    ,  0.4678,  0.    ,  0.    ,  0.    ,  0.    ,
  0.4626,  0.4475,  0.    ,  0.4705,  0.    ,  0.    ,  0.    ,  0.4499,
  0.    ,  0.    ,  0.    ,  0.4791,  0.438 ,  0.    ,  0.3807,  0.4554,
  0.3963,  0.    ,  0.    ,  0.4382,  0.    ,  0.    ,  0.4399,  0.    };
float dense_1_w[64][32] = {{-0.1435, -0.1794,  0.1944,  0.2   , -0.1697, -0.068 , -0.0796,  0.1834,
   0.1295, -0.2185,  0.0147, -0.2411, -0.2394, -0.0494, -0.2124, -0.2496,
   0.2387, -0.233 , -0.0918,  0.0219, -0.2424, -0.1049, -0.1802,  0.2347,
   0.2466,  0.0804,  0.1077, -0.1236, -0.015 ,  0.1447,  0.1895, -0.094 },
 {-0.1878, -0.0161, -0.055 , -0.0447,  0.2056,  0.6335, -0.14  ,  0.1651,
   0.4373, -0.1852,  0.3834,  0.6389, -0.0595,  0.016 ,  0.1913,  0.4582,
  -0.1213,  0.5751, -0.2178,  0.1509, -0.0656,  0.4215,  0.2674,  0.2515,
  -0.248 , -0.2227,  0.397 , -0.2157,  0.5269,  0.598 ,  0.5509, -0.0404},
 {-0.1359, -0.056 ,  0.0875, -0.2254,  0.192 ,  0.6028,  0.1687,  0.0066,
   0.3091, -0.2426,  0.2477,  0.6628, -0.0923, -0.2101, -0.1182,  0.2966,
   0.2365,  0.3565, -0.1266,  0.0353,  0.181 ,  0.5427,  0.5231,  0.5079,
   0.1618, -0.2173,  0.498 ,  0.2087,  0.5642,  0.5719,  0.485 ,  0.1455},
 { 0.1376, -0.1317,  0.0759, -0.0668, -0.2004,  0.1004,  0.0839,  0.1459,
  -0.1264,  0.169 ,  0.0165, -0.0706, -0.1635,  0.198 , -0.0209, -0.1869,
  -0.2459,  0.2256,  0.1438, -0.1919,  0.2488,  0.1402,  0.0154,  0.0969,
  -0.1063, -0.1033,  0.2315, -0.0349, -0.1721,  0.0583,  0.2085,  0.2293},
 { 0.0896,  0.0267,  0.2153,  0.2108,  0.3616,  0.756 ,  0.0753,  0.0332,
   0.3797, -0.1648,  0.2616,  0.5738, -0.2147, -0.0298,  0.1443,  0.59  ,
  -0.0766,  0.3341, -0.2284, -0.1234,  0.1833,  0.1927,  0.3561,  0.2477,
  -0.1406,  0.0631,  0.3189, -0.1005,  0.6881,  0.3548,  0.188 , -0.0004},
 { 0.1839, -0.1033,  0.1731, -0.1807,  0.2187,  0.5503, -0.1659, -0.2107,
   0.1982, -0.0599,  0.3171,  0.2887,  0.2357,  0.1472, -0.1076,  0.5986,
   0.0889,  0.4527, -0.1128, -0.2682, -0.0201,  0.4662,  0.5555,  0.5325,
   0.1202,  0.1927,  0.2689,  0.042 ,  0.6228,  0.3858,  0.3906, -0.2403},
 {-0.047 , -0.1341, -0.1547, -0.0748, -0.0188, -0.2361, -0.1822,  0.0723,
  -0.1699,  0.1757, -0.194 , -0.1556,  0.1644, -0.1062,  0.1482,  0.2259,
  -0.0112, -0.1347,  0.0129,  0.2328, -0.1449,  0.0164, -0.0717,  0.0545,
   0.1922,  0.1366,  0.2036,  0.1628, -0.1018,  0.1349, -0.0059, -0.2254},
 {-0.0224,  0.1088,  0.2258,  0.1088, -0.2202,  0.0806, -0.0343, -0.0445,
  -0.0785, -0.1952, -0.0701, -0.1304,  0.2343,  0.0386, -0.1652, -0.2324,
   0.1388,  0.2043,  0.1299, -0.1225,  0.1553, -0.0457,  0.1246, -0.2449,
  -0.0979, -0.2027,  0.003 , -0.1561,  0.005 ,  0.0401,  0.1023,  0.0284},
 { 0.0796,  0.1808, -0.2391,  0.1167,  0.5235,  0.3575, -0.0543, -0.0013,
   0.222 , -0.1963,  0.2401,  0.2375,  0.0548, -0.1061,  0.143 ,  0.2959,
  -0.0649,  0.6765, -0.0908, -0.0083, -0.0422,  0.6894,  0.3521,  0.2218,
   0.0076,  0.1853,  0.2363,  0.1349,  0.7169,  0.6004,  0.6253, -0.0829},
 {-0.0558, -0.1215, -0.143 ,  0.2397,  0.4971,  0.6989,  0.0685, -0.0012,
   0.4264, -0.0062,  0.3869,  0.5019, -0.1695, -0.2739, -0.1455,  0.5221,
   0.1318,  0.2665,  0.2363,  0.0801, -0.1   ,  0.568 ,  0.6463,  0.2104,
  -0.0889, -0.0996,  0.2586,  0.0121,  0.3921,  0.4762,  0.4995, -0.057 },
 { 0.0962,  0.0701, -0.0447, -0.2432, -0.1451, -0.0172, -0.0682, -0.2544,
   0.1822,  0.1722, -0.0448, -0.0274, -0.0971, -0.1582,  0.0059, -0.2046,
   0.2209,  0.0735,  0.1229, -0.1491, -0.1271, -0.0263, -0.1322,  0.1284,
   0.0038, -0.1551, -0.0679,  0.0198, -0.134 , -0.038 , -0.0893,  0.1148},
 {-0.0782,  0.0045,  0.0596, -0.0579,  0.2225,  0.1396,  0.1404,  0.0468,
   0.1955,  0.0232, -0.206 , -0.0538,  0.1089, -0.0614,  0.0633, -0.2124,
   0.1904,  0.2001, -0.1455, -0.1429,  0.0603, -0.0567,  0.2383,  0.1257,
   0.1851,  0.129 , -0.0661, -0.039 , -0.1539,  0.2496,  0.0452,  0.2115},
 { 0.0107, -0.269 ,  0.2168,  0.165 ,  0.4645,  0.5238, -0.0375,  0.0456,
   0.4518,  0.1076,  0.6587,  0.5536, -0.2011,  0.1716,  0.2143,  0.3292,
  -0.1521,  0.6576,  0.2271, -0.0219,  0.0954,  0.5423,  0.3795,  0.5308,
  -0.1073, -0.2054,  0.7084,  0.1835,  0.5087,  0.6319,  0.6233, -0.0422},
 {-0.2113,  0.1092,  0.0035,  0.2113,  0.3466,  0.545 , -0.0179, -0.1509,
   0.5204, -0.0471,  0.6494,  0.2455,  0.2352,  0.1076, -0.0251,  0.4644,
   0.0401,  0.5819, -0.2088, -0.1879, -0.0613,  0.5706,  0.2295,  0.6631,
  -0.0869, -0.0419,  0.7069, -0.2535,  0.2742,  0.5336,  0.6747, -0.2407},
 {-0.0121, -0.1558,  0.0811, -0.1004,  0.4378,  0.3319, -0.2057,  0.0221,
   0.3956,  0.0865,  0.5732,  0.254 ,  0.2224,  0.0568,  0.2221,  0.5974,
  -0.0633,  0.3153,  0.0369, -0.0195, -0.2154,  0.276 ,  0.4619,  0.5081,
   0.2208, -0.1196,  0.2571,  0.1525,  0.4532,  0.271 ,  0.3668,  0.2278},
 {-0.116 , -0.1843,  0.0093,  0.2143,  0.2194,  0.2155,  0.0629, -0.1814,
  -0.2245, -0.0096, -0.1468,  0.004 ,  0.0577, -0.178 ,  0.2034,  0.2306,
   0.2437,  0.1486, -0.2057,  0.0684, -0.0053,  0.0552, -0.0123,  0.118 ,
   0.1629,  0.0329, -0.088 ,  0.1509,  0.1272,  0.1751,  0.0438, -0.1963},
 {-0.2047,  0.2227, -0.2377,  0.1887, -0.0104,  0.0243, -0.0046,  0.2009,
   0.19  , -0.0914, -0.0156,  0.0151,  0.1764, -0.0636,  0.029 , -0.1161,
   0.0851,  0.0906,  0.028 ,  0.0508,  0.1681, -0.2123, -0.2226,  0.1316,
   0.0112, -0.0245, -0.0708,  0.0548, -0.037 , -0.1842, -0.0367,  0.2237},
 {-0.0838,  0.0376,  0.1303, -0.1057,  0.0319,  0.0433, -0.0932, -0.2255,
   0.2007,  0.0658,  0.138 , -0.1607,  0.0834, -0.239 ,  0.0305,  0.2396,
  -0.1052,  0.1611,  0.1542,  0.1524, -0.1582, -0.1293,  0.2395, -0.0762,
  -0.2083, -0.1329, -0.0311, -0.173 ,  0.0304,  0.056 , -0.1314,  0.0551},
 { 0.13  ,  0.0979,  0.0198,  0.0688,  0.1095, -0.1789,  0.1106,  0.0151,
   0.0524, -0.1506,  0.1667, -0.1783,  0.0355,  0.13  ,  0.2222,  0.1739,
  -0.0566, -0.1738, -0.1624,  0.044 , -0.0001,  0.0341, -0.0638,  0.2107,
   0.0246,  0.0543, -0.131 , -0.0875,  0.0518, -0.1548,  0.1595, -0.1165},
 {-0.0967, -0.0804, -0.1164,  0.0495,  0.343 ,  0.5066, -0.0365, -0.0245,
   0.5833, -0.2139,  0.4955,  0.3168, -0.217 , -0.1949,  0.0293,  0.3471,
  -0.1145,  0.6306,  0.122 ,  0.1782, -0.0848,  0.2166,  0.453 ,  0.3755,
  -0.2145,  0.0322,  0.4341, -0.0329,  0.2673,  0.2827,  0.6008, -0.2492},
 {-0.2251, -0.0808,  0.0586, -0.2261,  0.6994,  0.4225, -0.0211,  0.0307,
   0.6751,  0.0663,  0.6213,  0.2847,  0.0801,  0.0203,  0.2246,  0.2507,
  -0.2234,  0.4833, -0.1997, -0.2144, -0.0619,  0.5597,  0.5524,  0.2516,
   0.2159, -0.0691,  0.3257, -0.092 ,  0.4699,  0.3289,  0.2511,  0.1182},
 {-0.0758,  0.0427, -0.0561,  0.2372,  0.524 ,  0.3402,  0.2043, -0.007 ,
   0.5109,  0.1807,  0.1746,  0.2983, -0.1654, -0.0006, -0.0671,  0.6958,
   0.0878,  0.3063, -0.19  ,  0.0557, -0.0183,  0.6436,  0.4493,  0.4376,
  -0.1785,  0.1057,  0.3799, -0.0285,  0.4993,  0.6112,  0.2576, -0.1605},
 { 0.0737,  0.1822, -0.1234,  0.1577,  0.1734, -0.151 ,  0.2279, -0.0497,
  -0.1053, -0.1761, -0.0089, -0.1932, -0.0469,  0.1938, -0.0842, -0.0487,
   0.1201, -0.0387,  0.1682,  0.0427, -0.2184, -0.1462,  0.0231, -0.1906,
  -0.1282, -0.2497, -0.0142,  0.0645, -0.043 ,  0.1529, -0.1739,  0.2026},
 {-0.0972, -0.1501,  0.2311,  0.2099,  0.5301,  0.6809, -0.1614, -0.0108,
   0.544 , -0.1392,  0.4507,  0.6726,  0.0961,  0.2113, -0.0406,  0.2758,
  -0.086 ,  0.3416, -0.2336, -0.0844, -0.1618,  0.4604,  0.6101,  0.5867,
   0.1187,  0.0172,  0.5759, -0.256 ,  0.5579,  0.6037,  0.2449,  0.2459},
 {-0.0529,  0.0622,  0.1339, -0.0455, -0.036 ,  0.235 , -0.2026, -0.1856,
  -0.1402, -0.241 , -0.1897, -0.1641,  0.127 ,  0.2438,  0.0754,  0.2216,
  -0.0755,  0.0494, -0.1238,  0.2022,  0.1737,  0.1885,  0.1225, -0.0109,
  -0.0272,  0.2497,  0.1105,  0.1064, -0.1611, -0.207 , -0.245 , -0.1102},
 { 0.025 , -0.1866, -0.065 , -0.0373,  0.2328,  0.6642,  0.2273,  0.0151,
   0.5514, -0.1506,  0.376 ,  0.6169,  0.2106,  0.0219,  0.0974,  0.5632,
  -0.0222,  0.5751, -0.0486, -0.2841, -0.016 ,  0.5177,  0.2657,  0.4648,
   0.1755,  0.1094,  0.4951,  0.0251,  0.5588,  0.1432,  0.3004, -0.0271},
 {-0.1422, -0.1249,  0.1352, -0.0473, -0.242 ,  0.0962,  0.2068, -0.1331,
   0.1325, -0.0056, -0.0517, -0.0936, -0.2458, -0.0555, -0.03  ,  0.1098,
  -0.0751, -0.1505,  0.189 ,  0.1516,  0.0964, -0.1682,  0.0382, -0.1961,
  -0.1369,  0.0428,  0.0676,  0.1533, -0.0729, -0.1565, -0.1447, -0.0995},
 { 0.0576,  0.1986, -0.0881,  0.0415,  0.1919,  0.4259, -0.1495,  0.0814,
   0.2969, -0.2383,  0.4323,  0.2148,  0.0455, -0.1497,  0.1472,  0.412 ,
   0.1008,  0.4418, -0.1676,  0.0315,  0.1169,  0.3133,  0.4997,  0.3137,
   0.0002, -0.1013,  0.6915,  0.0028,  0.6966,  0.3814,  0.2904, -0.0197},
 {-0.0047,  0.0732,  0.1645, -0.0022,  0.2137,  0.3058, -0.0443,  0.0994,
   0.5393, -0.1429,  0.6138,  0.3445,  0.1288,  0.1026,  0.1182,  0.4088,
   0.0603,  0.4529, -0.1575, -0.0704, -0.1811,  0.4466,  0.5896,  0.4799,
   0.1727, -0.1077,  0.6581, -0.0924,  0.2036,  0.5379,  0.6206, -0.1919},
 { 0.0546,  0.2107, -0.1025,  0.0532,  0.5893,  0.6033,  0.0227, -0.1351,
   0.5233,  0.0707,  0.605 ,  0.3576, -0.0036,  0.0282, -0.0094,  0.5646,
   0.214 ,  0.5211,  0.0203, -0.1865, -0.0847,  0.2866,  0.405 ,  0.4971,
   0.2495,  0.1695,  0.6082, -0.1633,  0.6846,  0.556 ,  0.4181, -0.1085},
 { 0.1217, -0.0483,  0.2293,  0.1389,  0.0328,  0.0689,  0.0283,  0.0818,
   0.2112,  0.1138, -0.1146,  0.0556,  0.1251,  0.0707, -0.156 , -0.025 ,
  -0.1349,  0.1329,  0.2373, -0.0112, -0.1571, -0.1904,  0.0719,  0.1177,
   0.168 , -0.1999, -0.221 ,  0.1071,  0.0049,  0.0915, -0.1541, -0.0628},
 {-0.1199, -0.2413, -0.1714, -0.1462,  0.4893,  0.4836, -0.2072,  0.138 ,
   0.2206, -0.1782,  0.549 ,  0.6049,  0.1394,  0.1916, -0.0217,  0.6007,
   0.1804,  0.4117,  0.2236,  0.1721, -0.0121,  0.5133,  0.6535,  0.2418,
  -0.205 , -0.0633,  0.524 ,  0.216 ,  0.3399,  0.4832,  0.5262, -0.1432},
 {-0.1065, -0.041 ,  0.095 , -0.0612,  0.5185,  0.432 , -0.1397,  0.0552,
   0.2202, -0.0556,  0.2865,  0.4254, -0.0009, -0.2507, -0.2007,  0.2037,
  -0.1393,  0.197 , -0.0952, -0.0945,  0.2153,  0.575 ,  0.311 ,  0.177 ,
  -0.0829,  0.0839,  0.3284, -0.189 ,  0.6125,  0.2981,  0.4583,  0.2263},
 {-0.1651, -0.1088, -0.1294, -0.0321, -0.2442,  0.1795, -0.0249, -0.2304,
  -0.2147,  0.0215,  0.2331, -0.1722, -0.1713, -0.2262, -0.0989, -0.1813,
   0.2205,  0.0727, -0.0062,  0.1957,  0.1833, -0.1162,  0.2252,  0.0712,
   0.1759,  0.1008,  0.1679,  0.0068,  0.1112,  0.1277, -0.1549, -0.0415},
 {-0.1354,  0.1231, -0.1353,  0.2158,  0.2479, -0.1713,  0.091 , -0.1771,
  -0.1163, -0.1706,  0.0408,  0.0832, -0.0634,  0.2241,  0.1621, -0.0825,
  -0.1259,  0.1164, -0.072 ,  0.22  ,  0.2194, -0.1105, -0.0178, -0.1397,
   0.15  ,  0.1961, -0.0191, -0.0515,  0.1314, -0.0823, -0.0836, -0.0848},
 {-0.0668,  0.0716, -0.0343,  0.0919,  0.5519,  0.49  , -0.1628, -0.0531,
   0.6586, -0.1357,  0.2588,  0.463 , -0.2114,  0.0219, -0.0847,  0.7619,
   0.1154,  0.5302,  0.2103, -0.1527, -0.235 ,  0.5694,  0.6986,  0.2993,
   0.079 ,  0.1588,  0.6567, -0.0596,  0.635 ,  0.3329,  0.6192, -0.0823},
 { 0.0341,  0.1686,  0.0263,  0.0979,  0.0591,  0.1359, -0.0986,  0.1129,
   0.1162, -0.119 , -0.0667, -0.1261,  0.2389, -0.1285,  0.0212,  0.2064,
  -0.0975,  0.207 ,  0.0374,  0.1171,  0.0209,  0.0278, -0.1234, -0.2428,
   0.0007,  0.2008,  0.1246, -0.2453,  0.2348,  0.0054, -0.2423,  0.0696},
 { 0.1913, -0.1808, -0.0923,  0.1076, -0.0857,  0.1788, -0.1981, -0.1982,
  -0.2276, -0.1868, -0.2267, -0.0371,  0.0972,  0.199 , -0.0028,  0.122 ,
  -0.1006, -0.1515, -0.1975,  0.0123, -0.0252,  0.2028,  0.2021,  0.2261,
  -0.1765,  0.1096, -0.2323, -0.066 ,  0.0129,  0.2405, -0.0675, -0.154 },
 { 0.2204,  0.0948, -0.0004, -0.1484,  0.1321, -0.1831, -0.0017,  0.2346,
  -0.2056, -0.1439,  0.025 ,  0.1492,  0.0765,  0.1274,  0.0288, -0.0497,
   0.2261,  0.1421, -0.2097, -0.0303, -0.1274,  0.2339, -0.0599,  0.1537,
   0.0156, -0.01  , -0.1888, -0.0296,  0.1894,  0.2123,  0.1295,  0.0734},
 { 0.1933,  0.1949, -0.2154, -0.2432,  0.1053,  0.0363,  0.1314, -0.0992,
   0.0576,  0.1081, -0.035 ,  0.0663, -0.1993,  0.2036, -0.1194, -0.0363,
   0.2444, -0.1874, -0.2072, -0.2319,  0.1125,  0.2235,  0.1597,  0.135 ,
   0.0199,  0.0089, -0.0505, -0.0308,  0.1622,  0.19  ,  0.1213,  0.1032},
 { 0.1331,  0.0278,  0.0134, -0.2381,  0.4378,  0.5659, -0.1624,  0.0241,
   0.5346,  0.1008,  0.4302,  0.1785,  0.1391,  0.1913, -0.171 ,  0.2127,
  -0.1844,  0.6624,  0.0873, -0.024 ,  0.1528,  0.4231,  0.3229,  0.2867,
  -0.1187, -0.0095,  0.6584, -0.0868,  0.5127,  0.3444,  0.4737, -0.1419},
 { 0.2379,  0.2112, -0.2383, -0.1089,  0.5092,  0.4971, -0.0915, -0.0149,
   0.2731, -0.0886,  0.5866,  0.559 ,  0.0985,  0.0215,  0.1391,  0.4197,
  -0.0216,  0.4657,  0.0361,  0.0445,  0.0522,  0.1674,  0.4922,  0.1881,
  -0.23  , -0.1635,  0.5806,  0.0525,  0.4941,  0.2688,  0.566 ,  0.1427},
 {-0.2242, -0.0945, -0.1793, -0.1853,  0.1135,  0.0632, -0.2269,  0.1386,
   0.0752, -0.098 ,  0.0334, -0.0603,  0.1602, -0.1483, -0.2116,  0.0392,
  -0.1803,  0.2229, -0.0394,  0.2052, -0.2176,  0.2185,  0.0621, -0.1756,
  -0.2352, -0.0843, -0.0536, -0.1747,  0.0921, -0.2126,  0.237 , -0.0315},
 {-0.0747, -0.2423, -0.1147,  0.1466,  0.5196,  0.2477,  0.1816, -0.0369,
   0.6191, -0.1873,  0.2124,  0.5866, -0.2132, -0.0736, -0.267 ,  0.6197,
  -0.1681,  0.3438, -0.1837, -0.266 , -0.1512,  0.1722,  0.3011,  0.3114,
  -0.2252, -0.2574,  0.3011, -0.1556,  0.1944,  0.3908,  0.205 , -0.0288},
 {-0.2225, -0.0866, -0.2009,  0.0924,  0.0474, -0.0938, -0.1958,  0.0639,
   0.0802,  0.0873, -0.2209,  0.0208,  0.1948, -0.0905,  0.0025, -0.162 ,
   0.0348, -0.2322, -0.2265, -0.0528,  0.0472,  0.1022,  0.1397, -0.0379,
  -0.016 ,  0.0658,  0.1888, -0.0777,  0.1546,  0.1451, -0.1981, -0.1006},
 { 0.0949, -0.104 ,  0.2258,  0.0355, -0.1469, -0.0597,  0.0895,  0.1792,
  -0.0661,  0.118 , -0.1023,  0.0339, -0.1529,  0.187 ,  0.2371, -0.0965,
  -0.0973,  0.084 , -0.0809,  0.169 , -0.1014, -0.2093, -0.2348, -0.1922,
  -0.1283,  0.185 ,  0.0567, -0.0886,  0.0562,  0.1385,  0.0087, -0.1393},
 { 0.062 , -0.0842,  0.0213, -0.1233,  0.1904,  0.1935, -0.0094, -0.0339,
   0.1639,  0.0595, -0.1046,  0.1002,  0.0961,  0.0081, -0.1141,  0.0068,
   0.0852,  0.0496,  0.2068, -0.2278,  0.2427,  0.1901, -0.0922,  0.2286,
   0.2279, -0.0876, -0.2059, -0.1791, -0.0465, -0.0996,  0.0162, -0.1809},
 {-0.217 ,  0.0041, -0.1288, -0.0553,  0.4886,  0.236 ,  0.0624, -0.021 ,
   0.2539, -0.0548,  0.5426,  0.3956, -0.0609, -0.1994, -0.1394,  0.4831,
  -0.2097,  0.4499,  0.0441,  0.1356, -0.0019,  0.4812,  0.5216,  0.5823,
  -0.0344, -0.1257,  0.548 , -0.1208,  0.6664,  0.2638,  0.3583, -0.0745},
 { 0.0224,  0.1759, -0.2428, -0.1732,  0.0635, -0.0495, -0.0588,  0.2175,
  -0.2023, -0.1168,  0.1704,  0.0477,  0.2091, -0.1566, -0.0766,  0.2487,
  -0.0775,  0.0627, -0.2428, -0.0899, -0.2345, -0.2067, -0.0419, -0.0042,
  -0.1847, -0.0823, -0.0533,  0.2062, -0.0174, -0.1421, -0.066 ,  0.1834},
 { 0.0395, -0.0983,  0.0095,  0.124 ,  0.0643, -0.102 ,  0.0825, -0.2109,
   0.0111,  0.1163, -0.2086, -0.0569,  0.2367,  0.0276,  0.1955,  0.1116,
  -0.0042,  0.2101, -0.139 ,  0.0033, -0.017 ,  0.1344,  0.1398, -0.0773,
   0.0346, -0.0207, -0.0298, -0.0732,  0.2225,  0.085 , -0.0825, -0.0692},
 {-0.0104,  0.1829, -0.1846,  0.2419,  0.1656, -0.2397,  0.0257, -0.2132,
  -0.0675, -0.2168,  0.1589, -0.2048, -0.0447,  0.1094,  0.0002, -0.0025,
   0.1744, -0.1945,  0.1899,  0.0662, -0.104 ,  0.1479, -0.0305,  0.1184,
  -0.0115, -0.0795,  0.097 , -0.0127,  0.1481, -0.0601,  0.0417, -0.1887},
 {-0.0471, -0.2763, -0.2378, -0.1744,  0.2598,  0.5084,  0.1382,  0.0424,
   0.6503,  0.0937,  0.3286,  0.4082, -0.1992, -0.0103, -0.1637,  0.5767,
  -0.0634,  0.5234, -0.2011,  0.1159,  0.0339,  0.5618,  0.4162,  0.4206,
   0.0373, -0.2489,  0.5969,  0.1049,  0.6723,  0.3202,  0.2313, -0.0381},
 { 0.2267,  0.1249,  0.241 , -0.0446,  0.662 ,  0.3483, -0.0219,  0.0241,
   0.4769, -0.0023,  0.7012,  0.4431,  0.0101,  0.0222,  0.2139,  0.5484,
  -0.226 ,  0.4878,  0.2099,  0.141 , -0.1726,  0.6973,  0.5427,  0.5899,
  -0.2325, -0.2141,  0.4874, -0.1792,  0.3557,  0.4184,  0.2791, -0.1041},
 {-0.0628,  0.1305,  0.0543,  0.1167, -0.2388, -0.0702,  0.0013, -0.1639,
  -0.0554,  0.0714,  0.0076, -0.092 , -0.1398, -0.1223, -0.2265, -0.0461,
  -0.2177,  0.155 ,  0.0844, -0.2269, -0.0985, -0.1204, -0.199 , -0.2074,
  -0.1442,  0.2014,  0.0063, -0.0451,  0.2196,  0.012 , -0.0709, -0.2083},
 {-0.1249, -0.2337,  0.2037, -0.1134,  0.3344,  0.6618,  0.0043, -0.1245,
   0.323 , -0.0905,  0.6145,  0.3583,  0.0627,  0.0558,  0.1582,  0.3827,
   0.0299,  0.7371,  0.0217, -0.2618, -0.188 ,  0.4695,  0.2909,  0.3283,
   0.1319,  0.2388,  0.6776,  0.1624,  0.531 ,  0.393 ,  0.3018,  0.0276},
 { 0.174 ,  0.0147, -0.0079, -0.1539,  0.44  ,  0.1833, -0.2172, -0.2329,
   0.5065,  0.2196,  0.4505,  0.6206,  0.0999, -0.2529, -0.1696,  0.232 ,
   0.1245,  0.2381, -0.2146,  0.072 ,  0.1538,  0.3773,  0.4043,  0.3301,
   0.229 ,  0.1947,  0.5279,  0.0523,  0.6075,  0.4758,  0.1936, -0.1236},
 { 0.1206,  0.0243, -0.0749, -0.1238,  0.3461,  0.7418,  0.228 ,  0.1919,
   0.6286, -0.1025,  0.4969,  0.4963,  0.0628, -0.0023, -0.2346,  0.4901,
   0.0982,  0.7775,  0.245 , -0.0817,  0.1804,  0.638 ,  0.3729,  0.6303,
  -0.144 ,  0.1015,  0.3095, -0.0448,  0.6672,  0.5491,  0.2722, -0.0713},
 {-0.0314,  0.0701,  0.2425, -0.0584,  0.0266,  0.0535,  0.1456, -0.0344,
  -0.0435,  0.2417,  0.0994, -0.1905,  0.0388,  0.25  ,  0.164 ,  0.219 ,
  -0.0532, -0.1953, -0.2399, -0.1638, -0.1231, -0.1625, -0.2105, -0.2277,
   0.0596, -0.1021,  0.0832,  0.1274,  0.1331,  0.1268,  0.0338,  0.0406},
 { 0.0248, -0.1095,  0.2149,  0.0633,  0.1541,  0.0024,  0.1273, -0.2421,
  -0.135 ,  0.008 , -0.055 , -0.1014,  0.0155,  0.1876,  0.075 ,  0.2075,
  -0.0872, -0.0934,  0.1143, -0.0451,  0.0453, -0.0735, -0.1471,  0.2432,
  -0.0065, -0.1789,  0.0694, -0.0212,  0.2117, -0.2302, -0.0998, -0.1356},
 {-0.2483,  0.0987, -0.0627, -0.1835,  0.5844,  0.2164, -0.21  , -0.0671,
   0.573 ,  0.0788,  0.3629,  0.5704, -0.118 , -0.0152,  0.026 ,  0.4475,
  -0.1658,  0.3464,  0.1247,  0.1997, -0.0211,  0.3656,  0.5291,  0.5104,
   0.1273, -0.2332,  0.3871,  0.0217,  0.1586,  0.3888,  0.4289, -0.1481},
 {-0.1517, -0.0919, -0.2237, -0.2309,  0.0829, -0.0287,  0.1001, -0.0572,
  -0.1161, -0.1705, -0.1879, -0.0893,  0.0739, -0.039 ,  0.0624, -0.1402,
   0.194 ,  0.2287, -0.1252, -0.1398, -0.1121, -0.241 , -0.2365,  0.2284,
  -0.2249, -0.0267, -0.0181, -0.0603,  0.1274,  0.0632,  0.233 , -0.0844},
 { 0.0839, -0.0606,  0.2396,  0.0281, -0.1444, -0.132 , -0.0944, -0.0315,
  -0.1016,  0.0254,  0.1173, -0.1286,  0.0292, -0.0182,  0.1761,  0.0433,
   0.1484, -0.2293,  0.0171, -0.0701,  0.0451, -0.11  , -0.1003, -0.038 ,
   0.0174,  0.1379,  0.1707,  0.0101,  0.1444,  0.1128,  0.1832,  0.0097},
 { 0.1085,  0.0748,  0.0744, -0.0019,  0.5952,  0.2562,  0.1516,  0.0718,
   0.6163,  0.096 ,  0.3077,  0.1934, -0.2278,  0.1602, -0.0388,  0.3909,
  -0.1592,  0.5863,  0.0339,  0.1797, -0.1437,  0.461 ,  0.3618,  0.4624,
   0.1532,  0.1035,  0.4941,  0.1904,  0.3551,  0.4348,  0.4985, -0.0091},
 {-0.074 ,  0.0873, -0.0109,  0.0122,  0.0196,  0.1886,  0.0167, -0.2482,
   0.0452, -0.1672, -0.0412, -0.0645, -0.1995, -0.0095, -0.2446, -0.0074,
  -0.0222,  0.0033, -0.0002, -0.0719, -0.0071,  0.025 ,  0.0786,  0.1235,
   0.1144, -0.1047,  0.1934,  0.0888, -0.01  ,  0.203 ,  0.0406,  0.1546}};
float dense_1_b[32] = { 0.    , -0.0311,  0.    , -0.0056,  0.2992,  0.409 , -0.0151, -0.0386,
  0.3165,  0.    ,  0.3064,  0.3133,  0.    , -0.0235, -0.0188,  0.3912,
  0.    ,  0.3901,  0.    , -0.043 , -0.0273,  0.3204,  0.3258,  0.3213,
  0.    , -0.0085,  0.3629, -0.0152,  0.3577,  0.3502,  0.3089,  0.    };
float dense_2_w[32][1] = {{-0.0627},
 {-0.1405},
 { 0.3663},
 {-0.0719},
 { 0.8396},
 { 0.4934},
 {-0.2519},
 {-0.2551},
 { 0.7006},
 { 0.0354},
 { 0.8514},
 { 0.7585},
 { 0.0669},
 {-0.4074},
 {-0.2629},
 { 0.5383},
 { 0.2933},
 { 0.5395},
 { 0.2872},
 {-0.2286},
 {-0.0319},
 { 0.7211},
 { 0.6863},
 { 0.7634},
 {-0.375 },
 {-0.1963},
 { 0.5566},
 {-0.09  },
 { 0.5691},
 { 0.6001},
 { 0.7868},
 {-0.1986}};
float dense_2_b[1] = {0.2491};
